<?xml version="1.0"?>
<opencv_storage>
<cascade>
  <stageType>BOOST</stageType>
  <featureType>LBP</featureType>
  <height>32</height>
  <width>32</width>
  <stageParams>
    <boostType>GAB</boostType>
    <minHitRate>9.9500000476837158e-01</minHitRate>
    <maxFalseAlarm>5.0000000000000000e-01</maxFalseAlarm>
    <weightTrimRate>9.4999999999999996e-01</weightTrimRate>
    <maxDepth>1</maxDepth>
    <maxWeakCount>100</maxWeakCount></stageParams>
  <featureParams>
    <maxCatCount>256</maxCatCount>
    <featSize>1</featSize></featureParams>
  <stageNum>6</stageNum>
  <stages>
    <!-- stage 0 -->
    <_>
      <maxWeakCount>1</maxWeakCount>
      <stageThreshold>1.</stageThreshold>
      <weakClassifiers>
        <_>
          <internalNodes>
            0 -1 0 -1828257293 -1828126703 86097 1360597001 -2147385201
            -1894907648 73731 -74719089</internalNodes>
          <leafValues>
            -1. 1.</leafValues></_></weakClassifiers></_>
    <!-- stage 1 -->
    <_>
      <maxWeakCount>1</maxWeakCount>
      <stageThreshold>1.</stageThreshold>
      <weakClassifiers>
        <_>
          <internalNodes>
            0 -1 3 -95169285 -788299583 33809 -746504191 537034889
            -2004344832 -1602207573 -611728767</internalNodes>
          <leafValues>
            -1. 1.</leafValues></_></weakClassifiers></_>
    <!-- stage 2 -->
    <_>
      <maxWeakCount>1</maxWeakCount>
      <stageThreshold>9.9004977941513062e-01</stageThreshold>
      <weakClassifiers>
        <_>
          <internalNodes>
            0 -1 5 1205598943 -652541886 16826641 -1610513662 335937716
            -2146942976 -2113896319 -96493437</internalNodes>
          <leafValues>
            -1. 9.9004977941513062e-01</leafValues></_></weakClassifiers></_>
    <!-- stage 3 -->
    <_>
      <maxWeakCount>1</maxWeakCount>
      <stageThreshold>9.9004977941513062e-01</stageThreshold>
      <weakClassifiers>
        <_>
          <internalNodes>
            0 -1 4 -1063923465 -1035927037 32771 -1056341117 -536674229
            -2080374781 -2105171829 -23098741</internalNodes>
          <leafValues>
            -1. 9.9004977941513062e-01</leafValues></_></weakClassifiers></_>
    <!-- stage 4 -->
    <_>
      <maxWeakCount>1</maxWeakCount>
      <stageThreshold>9.9004977941513062e-01</stageThreshold>
      <weakClassifiers>
        <_>
          <internalNodes>
            0 -1 2 -786702353 -1879047936 805339407 -2063334629
            -1753054549 -1971126270 -2109691893 -77494109</internalNodes>
          <leafValues>
            -1. 9.9004977941513062e-01</leafValues></_></weakClassifiers></_>
    <!-- stage 5 -->
    <_>
      <maxWeakCount>1</maxWeakCount>
      <stageThreshold>9.9004977941513062e-01</stageThreshold>
      <weakClassifiers>
        <_>
          <internalNodes>
            0 -1 1 352602399 -606924263 82193 -619638654 167772582
            -75431535 136883102 -8388477</internalNodes>
          <leafValues>
            -1. 9.9004977941513062e-01</leafValues></_></weakClassifiers></_></stages>
  <features>
    <_>
      <rect>
        1 5 8 5</rect></_>
    <_>
      <rect>
        3 14 6 2</rect></_>
    <_>
      <rect>
        5 12 7 4</rect></_>
    <_>
      <rect>
        10 14 6 2</rect></_>
    <_>
      <rect>
        12 11 2 3</rect></_>
    <_>
      <rect>
        14 12 2 2</rect></_></features></cascade>
</opencv_storage>
